digraph Tree {
node [shape=box, style="filled", color="black", fontname="helvetica"] ;
edge [fontname="helvetica"] ;
0 [label="OverallQual <= 7.5\nfriedman_mse = 6306788585.349\nsamples = 1460\nvalue = 180921.196", fillcolor="#f8dcc7"] ;
1 [label="OverallQual <= 6.5\nfriedman_mse = 2426928665.05\nsamples = 1231\nvalue = 157832.433", fillcolor="#f9e2d2"] ;
0 -> 1 [labeldistance=2.5, labelangle=45, headlabel="True"] ;
2 [label="GrLivArea <= 1378.5\nfriedman_mse = 1411538921.037\nsamples = 912\nvalue = 140383.976", fillcolor="#fae7d9"] ;
1 -> 2 ;
3 [label="TotalBsmtSF <= 1007.5\nfriedman_mse = 837746927.031\nsamples = 564\nvalue = 124907.778", fillcolor="#fbece0"] ;
2 -> 3 ;
4 [label="CentralAir <= 1.5\nfriedman_mse = 641983560.06\nsamples = 376\nvalue = 113919.918", fillcolor="#fcefe5"] ;
3 -> 4 ;
5 [label="BsmtFinSF1 <= 369.5\nfriedman_mse = 469947374.685\nsamples = 320\nvalue = 119154.316", fillcolor="#fbede3"] ;
4 -> 5 ;
6 [label="GarageArea <= 227.0\nfriedman_mse = 415724968.13\nsamples = 164\nvalue = 109902.061", fillcolor="#fcf0e7"] ;
5 -> 6 ;
7 [label="2ndFlrSF <= 459.5\nfriedman_mse = 418221111.111\nsamples = 36\nvalue = 95566.667", fillcolor="#fdf4ee"] ;
6 -> 7 ;
8 [label="TotalBsmtSF <= 681.0\nfriedman_mse = 266138112.245\nsamples = 28\nvalue = 90178.571", fillcolor="#fdf5f0"] ;
7 -> 8 ;
9 [label="friedman_mse = 164173553.719\nsamples = 11\nvalue = 79409.091", fillcolor="#fef9f5"] ;
8 -> 9 ;
10 [label="friedman_mse = 208508373.702\nsamples = 17\nvalue = 97147.059", fillcolor="#fdf3ed"] ;
8 -> 10 ;
11 [label="friedman_mse = 493264375.0\nsamples = 8\nvalue = 114425.0", fillcolor="#fcefe5"] ;
7 -> 11 ;
12 [label="BsmtExposure <= 3.5\nfriedman_mse = 340969409.785\nsamples = 128\nvalue = 113933.891", fillcolor="#fcefe5"] ;
6 -> 12 ;
13 [label="TotalBsmtSF <= 605.5\nfriedman_mse = 287972524.909\nsamples = 120\nvalue = 112107.125", fillcolor="#fcefe6"] ;
12 -> 13 ;
14 [label="friedman_mse = 187166397.146\nsamples = 29\nvalue = 99865.517", fillcolor="#fcf3ec"] ;
13 -> 14 ;
15 [label="friedman_mse = 257121800.187\nsamples = 91\nvalue = 116008.297", fillcolor="#fceee4"] ;
13 -> 15 ;
16 [label="friedman_mse = 335025247.234\nsamples = 8\nvalue = 141335.375", fillcolor="#fae7d9"] ;
12 -> 16 ;
17 [label="OverallQual <= 4.5\nfriedman_mse = 342346979.735\nsamples = 156\nvalue = 128881.045", fillcolor="#fbeadf"] ;
5 -> 17 ;
18 [label="BsmtFinSF1 <= 548.0\nfriedman_mse = 312956584.0\nsamples = 25\nvalue = 108646.0", fillcolor="#fcf0e8"] ;
17 -> 18 ;
19 [label="friedman_mse = 245422933.884\nsamples = 11\nvalue = 97895.455", fillcolor="#fdf3ed"] ;
18 -> 19 ;
20 [label="friedman_mse = 203861020.408\nsamples = 14\nvalue = 117092.857", fillcolor="#fbeee4"] ;
18 -> 20 ;
21 [label="GarageArea <= 415.0\nfriedman_mse = 254902838.151\nsamples = 131\nvalue = 132742.695", fillcolor="#fbe9dd"] ;
17 -> 21 ;
22 [label="EnclosedPorch <= 109.0\nfriedman_mse = 258594984.432\nsamples = 66\nvalue = 124825.5", fillcolor="#fbece0"] ;
21 -> 22 ;
23 [label="friedman_mse = 180916007.729\nsamples = 58\nvalue = 127494.828", fillcolor="#fbebdf"] ;
22 -> 23 ;
24 [label="friedman_mse = 395584975.359\nsamples = 8\nvalue = 105472.875", fillcolor="#fcf1e9"] ;
22 -> 24 ;
25 [label="LotArea <= 10610.0\nfriedman_mse = 122882097.136\nsamples = 65\nvalue = 140781.692", fillcolor="#fae7d9"] ;
21 -> 25 ;
26 [label="friedman_mse = 95075233.897\nsamples = 56\nvalue = 139112.679", fillcolor="#fae7da"] ;
25 -> 26 ;
27 [label="friedman_mse = 170722222.222\nsamples = 9\nvalue = 151166.667", fillcolor="#f9e4d5"] ;
25 -> 27 ;
28 [label="GrLivArea <= 737.0\nfriedman_mse = 573823485.316\nsamples = 56\nvalue = 84009.071", fillcolor="#fdf7f3"] ;
4 -> 28 ;
29 [label="friedman_mse = 348151835.109\nsamples = 8\nvalue = 56670.125", fillcolor="#ffffff"] ;
28 -> 29 ;
30 [label="YrSold <= 2007.5\nfriedman_mse = 466104150.829\nsamples = 48\nvalue = 88565.562", fillcolor="#fdf6f1"] ;
28 -> 30 ;
31 [label="BedroomAbvGr <= 2.5\nfriedman_mse = 253913980.125\nsamples = 17\nvalue = 102441.412", fillcolor="#fcf2ea"] ;
30 -> 31 ;
32 [label="friedman_mse = 101413580.247\nsamples = 9\nvalue = 94444.444", fillcolor="#fdf4ee"] ;
31 -> 32 ;
33 [label="friedman_mse = 272592908.0\nsamples = 8\nvalue = 111438.0", fillcolor="#fcefe6"] ;
31 -> 33 ;
34 [label="LotFrontage <= 51.5\nfriedman_mse = 418978488.626\nsamples = 31\nvalue = 80956.226", fillcolor="#fef8f4"] ;
30 -> 34 ;
35 [label="friedman_mse = 320826875.0\nsamples = 8\nvalue = 61175.0", fillcolor="#fffefd"] ;
34 -> 35 ;
36 [label="TotalBsmtSF <= 725.5\nfriedman_mse = 269674645.705\nsamples = 23\nvalue = 87836.652", fillcolor="#fdf6f1"] ;
34 -> 36 ;
37 [label="friedman_mse = 219097129.716\nsamples = 15\nvalue = 81849.533", fillcolor="#fef8f4"] ;
36 -> 37 ;
38 [label="friedman_mse = 171277343.75\nsamples = 8\nvalue = 99062.5", fillcolor="#fdf3ec"] ;
36 -> 38 ;
39 [label="GarageFinish <= 1.5\nfriedman_mse = 504875149.154\nsamples = 188\nvalue = 146883.5", fillcolor="#fae5d7"] ;
3 -> 39 ;
40 [label="YearBuilt <= 1949.0\nfriedman_mse = 453426601.292\nsamples = 100\nvalue = 138382.26", fillcolor="#fae8da"] ;
39 -> 40 ;
41 [label="friedman_mse = 111971768.595\nsamples = 11\nvalue = 110816.364", fillcolor="#fcf0e7"] ;
40 -> 41 ;
42 [label="SaleCondition <= 2.5\nfriedman_mse = 390103507.573\nsamples = 89\nvalue = 141789.281", fillcolor="#fae7d9"] ;
40 -> 42 ;
43 [label="OverallQual <= 5.5\nfriedman_mse = 210621846.0\nsamples = 75\nvalue = 145398.0", fillcolor="#fae6d7"] ;
42 -> 43 ;
44 [label="GrLivArea <= 1171.0\nfriedman_mse = 159216837.274\nsamples = 51\nvalue = 140400.98", fillcolor="#fae7d9"] ;
43 -> 44 ;
45 [label="friedman_mse = 130839257.271\nsamples = 38\nvalue = 137015.789", fillcolor="#fae8db"] ;
44 -> 45 ;
46 [label="friedman_mse = 110755177.515\nsamples = 13\nvalue = 150296.154", fillcolor="#f9e4d5"] ;
44 -> 46 ;
47 [label="YearBuilt <= 1983.5\nfriedman_mse = 154039722.222\nsamples = 24\nvalue = 156016.667", fillcolor="#f9e3d2"] ;
43 -> 47 ;
48 [label="friedman_mse = 123738085.938\nsamples = 16\nvalue = 151493.75", fillcolor="#f9e4d4"] ;
47 -> 48 ;
49 [label="friedman_mse = 91902343.75\nsamples = 8\nvalue = 165062.5", fillcolor="#f9e0ce"] ;
47 -> 49 ;
50 [label="friedman_mse = 908104513.694\nsamples = 14\nvalue = 122456.857", fillcolor="#fbece1"] ;
42 -> 50 ;
51 [label="GrLivArea <= 1199.5\nfriedman_mse = 387887918.818\nsamples = 88\nvalue = 156544.0", fillcolor="#f9e2d2"] ;
39 -> 51 ;
52 [label="YearBuilt <= 1962.5\nfriedman_mse = 193187009.0\nsamples = 50\nvalue = 147429.0", fillcolor="#fae5d6"] ;
51 -> 52 ;
53 [label="GarageArea <= 304.0\nfriedman_mse = 57814182.825\nsamples = 19\nvalue = 139405.263", fillcolor="#fae7da"] ;
52 -> 53 ;
54 [label="friedman_mse = 31607500.0\nsamples = 8\nvalue = 134900.0", fillcolor="#fae9dc"] ;
53 -> 54 ;
55 [label="friedman_mse = 51376033.058\nsamples = 11\nvalue = 142681.818", fillcolor="#fae6d8"] ;
53 -> 55 ;
56 [label="1stFlrSF <= 1071.0\nfriedman_mse = 212514021.852\nsamples = 31\nvalue = 152346.774", fillcolor="#f9e4d4"] ;
52 -> 56 ;
57 [label="friedman_mse = 107709843.75\nsamples = 8\nvalue = 140537.5", fillcolor="#fae7d9"] ;
56 -> 57 ;
58 [label="YearBuilt <= 1976.5\nfriedman_mse = 183588024.575\nsamples = 23\nvalue = 156454.348", fillcolor="#f9e3d2"] ;
56 -> 58 ;
59 [label="friedman_mse = 168067716.837\nsamples = 14\nvalue = 151932.143", fillcolor="#f9e4d4"] ;
58 -> 59 ;
60 [label="friedman_mse = 126434320.988\nsamples = 9\nvalue = 163488.889", fillcolor="#f9e1cf"] ;
58 -> 60 ;
61 [label="BsmtQual <= 1.5\nfriedman_mse = 390911145.033\nsamples = 38\nvalue = 168537.421", fillcolor="#f8dfcd"] ;
51 -> 61 ;
62 [label="Fence <= 0.5\nfriedman_mse = 191276121.884\nsamples = 19\nvalue = 157757.895", fillcolor="#f9e2d2"] ;
61 -> 62 ;
63 [label="friedman_mse = 143400826.446\nsamples = 11\nvalue = 150909.091", fillcolor="#f9e4d5"] ;
62 -> 63 ;
64 [label="friedman_mse = 103926875.0\nsamples = 8\nvalue = 167175.0", fillcolor="#f8dfcd"] ;
62 -> 64 ;
65 [label="GarageArea <= 503.5\nfriedman_mse = 358149792.997\nsamples = 19\nvalue = 179316.947", fillcolor="#f8dcc8"] ;
61 -> 65 ;
66 [label="friedman_mse = 146660994.05\nsamples = 11\nvalue = 171938.364", fillcolor="#f8decb"] ;
65 -> 66 ;
67 [label="friedman_mse = 471154843.75\nsamples = 8\nvalue = 189462.5", fillcolor="#f7d9c3"] ;
65 -> 67 ;
68 [label="GarageCars <= 1.5\nfriedman_mse = 1324189529.34\nsamples = 348\nvalue = 165466.089", fillcolor="#f9e0ce"] ;
2 -> 68 ;
69 [label="BsmtFinSF1 <= 142.5\nfriedman_mse = 865288483.417\nsamples = 101\nvalue = 140816.297", fillcolor="#fae7d9"] ;
68 -> 69 ;
70 [label="OverallCond <= 4.5\nfriedman_mse = 466675166.29\nsamples = 55\nvalue = 126004.764", fillcolor="#fbebe0"] ;
69 -> 70 ;
71 [label="friedman_mse = 292051597.633\nsamples = 13\nvalue = 107338.462", fillcolor="#fcf1e8"] ;
70 -> 71 ;
72 [label="YearRemodAdd <= 1966.5\nfriedman_mse = 379496267.293\nsamples = 42\nvalue = 131782.429", fillcolor="#fbeadd"] ;
70 -> 72 ;
73 [label="Foundation <= 1.5\nfriedman_mse = 323039124.216\nsamples = 19\nvalue = 122099.316", fillcolor="#fbece2"] ;
72 -> 73 ;
74 [label="friedman_mse = 297217500.0\nsamples = 8\nvalue = 110350.0", fillcolor="#fcf0e7"] ;
73 -> 74 ;
75 [label="friedman_mse = 168404800.744\nsamples = 11\nvalue = 130644.273", fillcolor="#fbeade"] ;
73 -> 75 ;
76 [label="MSZoning <= 2.5\nfriedman_mse = 284693163.989\nsamples = 23\nvalue = 139781.522", fillcolor="#fae7da"] ;
72 -> 76 ;
77 [label="friedman_mse = 200006087.372\nsamples = 14\nvalue = 149105.357", fillcolor="#fae5d6"] ;
76 -> 77 ;
78 [label="friedman_mse = 70839506.173\nsamples = 9\nvalue = 125277.778", fillcolor="#fbebe0"] ;
76 -> 78 ;
79 [label="2ndFlrSF <= 783.5\nfriedman_mse = 765963030.019\nsamples = 46\nvalue = 158525.739", fillcolor="#f9e2d1"] ;
69 -> 79 ;
80 [label="LotShape <= 0.5\nfriedman_mse = 314011171.111\nsamples = 36\nvalue = 149960.667", fillcolor="#fae4d5"] ;
79 -> 80 ;
81 [label="HouseStyle <= 3.5\nfriedman_mse = 154218801.775\nsamples = 26\nvalue = 144015.385", fillcolor="#fae6d8"] ;
80 -> 81 ;
82 [label="friedman_mse = 218676745.562\nsamples = 13\nvalue = 149080.769", fillcolor="#fae5d6"] ;
81 -> 82 ;
83 [label="friedman_mse = 38444615.385\nsamples = 13\nvalue = 138950.0", fillcolor="#fae8da"] ;
81 -> 83 ;
84 [label="friedman_mse = 398629227.04\nsamples = 10\nvalue = 165418.4", fillcolor="#f9e0ce"] ;
80 -> 84 ;
85 [label="friedman_mse = 1178140400.0\nsamples = 10\nvalue = 189360.0", fillcolor="#f7d9c3"] ;
79 -> 85 ;
86 [label="KitchenAbvGr <= 1.5\nfriedman_mse = 1161784787.332\nsamples = 247\nvalue = 175545.559", fillcolor="#f8ddca"] ;
68 -> 86 ;
87 [label="GrLivArea <= 2140.0\nfriedman_mse = 971185644.742\nsamples = 214\nvalue = 181321.257", fillcolor="#f8dbc7"] ;
86 -> 87 ;
88 [label="BsmtFinSF1 <= 623.5\nfriedman_mse = 741310615.255\nsamples = 197\nvalue = 177793.802", fillcolor="#f8dcc9"] ;
87 -> 88 ;
89 [label="OverallQual <= 5.5\nfriedman_mse = 486447310.457\nsamples = 132\nvalue = 170276.356", fillcolor="#f8dfcc"] ;
88 -> 89 ;
90 [label="YearBuilt <= 1961.5\nfriedman_mse = 491011433.531\nsamples = 28\nvalue = 154477.571", fillcolor="#f9e3d3"] ;
89 -> 90 ;
91 [label="friedman_mse = 329823302.028\nsamples = 19\nvalue = 145064.842", fillcolor="#fae6d7"] ;
90 -> 91 ;
92 [label="friedman_mse = 249384898.765\nsamples = 9\nvalue = 174348.889", fillcolor="#f8ddca"] ;
90 -> 92 ;
93 [label="YearRemodAdd <= 1983.0\nfriedman_mse = 399925655.071\nsamples = 104\nvalue = 174529.875", fillcolor="#f8ddca"] ;
89 -> 93 ;
94 [label="friedman_mse = 477136106.173\nsamples = 45\nvalue = 166697.778", fillcolor="#f9e0ce"] ;
93 -> 94 ;
95 [label="friedman_mse = 258565952.928\nsamples = 59\nvalue = 180503.508", fillcolor="#f8dcc7"] ;
93 -> 95 ;
96 [label="KitchenQual <= 1.5\nfriedman_mse = 911059553.846\nsamples = 65\nvalue = 193060.0", fillcolor="#f7d8c2"] ;
88 -> 96 ;
97 [label="YearBuilt <= 1961.5\nfriedman_mse = 681602338.776\nsamples = 35\nvalue = 179695.714", fillcolor="#f8dcc8"] ;
96 -> 97 ;
98 [label="friedman_mse = 649616100.0\nsamples = 10\nvalue = 157530.0", fillcolor="#f9e2d2"] ;
97 -> 98 ;
99 [label="friedman_mse = 419258256.0\nsamples = 25\nvalue = 188562.0", fillcolor="#f7d9c4"] ;
97 -> 99 ;
100 [label="LotArea <= 11907.5\nfriedman_mse = 727288080.556\nsamples = 30\nvalue = 208651.667", fillcolor="#f6d4bb"] ;
96 -> 100 ;
101 [label="friedman_mse = 525126594.388\nsamples = 14\nvalue = 190696.429", fillcolor="#f7d9c3"] ;
100 -> 101 ;
102 [label="friedman_mse = 375257343.75\nsamples = 16\nvalue = 224362.5", fillcolor="#f5cfb4"] ;
100 -> 102 ;
103 [label="TotalBsmtSF <= 1037.5\nfriedman_mse = 1819912520.415\nsamples = 17\nvalue = 222198.235", fillcolor="#f5d0b5"] ;
87 -> 103 ;
104 [label="friedman_mse = 1919636928.395\nsamples = 9\nvalue = 198152.222", fillcolor="#f7d7c0"] ;
103 -> 104 ;
105 [label="friedman_mse = 325437500.0\nsamples = 8\nvalue = 249250.0", fillcolor="#f4c8a9"] ;
103 -> 105 ;
106 [label="BsmtFinSF1 <= 441.5\nfriedman_mse = 778623594.393\nsamples = 33\nvalue = 138091.03", fillcolor="#fae8da"] ;
86 -> 106 ;
107 [label="GarageYrBlt <= 1972.0\nfriedman_mse = 371326712.537\nsamples = 22\nvalue = 125649.091", fillcolor="#fbebe0"] ;
106 -> 107 ;
108 [label="friedman_mse = 388880165.289\nsamples = 11\nvalue = 116727.273", fillcolor="#fbeee4"] ;
107 -> 108 ;
109 [label="friedman_mse = 194575580.446\nsamples = 11\nvalue = 134570.909", fillcolor="#fae9dc"] ;
107 -> 109 ;
110 [label="friedman_mse = 664406222.81\nsamples = 11\nvalue = 162974.909", fillcolor="#f9e1cf"] ;
106 -> 110 ;
111 [label="GrLivArea <= 1941.0\nfriedman_mse = 1971049955.987\nsamples = 319\nvalue = 207716.423", fillcolor="#f6d4bb"] ;
1 -> 111 ;
112 [label="TotalBsmtSF <= 1469.0\nfriedman_mse = 1243894899.002\nsamples = 239\nvalue = 194238.745", fillcolor="#f7d8c1"] ;
111 -> 112 ;
113 [label="GarageArea <= 407.5\nfriedman_mse = 831451877.329\nsamples = 198\nvalue = 185459.611", fillcolor="#f7dac5"] ;
112 -> 113 ;
114 [label="LotArea <= 7474.5\nfriedman_mse = 482107166.783\nsamples = 43\nvalue = 163212.767", fillcolor="#f9e1cf"] ;
113 -> 114 ;
115 [label="friedman_mse = 267810436.222\nsamples = 15\nvalue = 146602.333", fillcolor="#fae5d7"] ;
114 -> 115 ;
116 [label="Neighborhood <= 12.5\nfriedman_mse = 369919565.526\nsamples = 28\nvalue = 172111.214", fillcolor="#f8decb"] ;
114 -> 116 ;
117 [label="GarageArea <= 392.5\nfriedman_mse = 296445634.11\nsamples = 20\nvalue = 166453.7", fillcolor="#f9e0ce"] ;
116 -> 117 ;
118 [label="friedman_mse = 316157343.75\nsamples = 8\nvalue = 152737.5", fillcolor="#f9e4d4"] ;
117 -> 118 ;
119 [label="friedman_mse = 74266558.306\nsamples = 12\nvalue = 175597.833", fillcolor="#f8ddca"] ;
117 -> 119 ;
120 [label="friedman_mse = 273539050.0\nsamples = 8\nvalue = 186255.0", fillcolor="#f7dac5"] ;
116 -> 120 ;
121 [label="YearRemodAdd <= 1978.5\nfriedman_mse = 752975962.01\nsamples = 155\nvalue = 191631.316", fillcolor="#f7d8c2"] ;
113 -> 121 ;
122 [label="friedman_mse = 684939438.776\nsamples = 14\nvalue = 153264.286", fillcolor="#f9e3d4"] ;
121 -> 122 ;
123 [label="1stFlrSF <= 767.0\nfriedman_mse = 599060219.204\nsamples = 141\nvalue = 195440.809", fillcolor="#f7d7c1"] ;
121 -> 123 ;
124 [label="GrLivArea <= 1424.0\nfriedman_mse = 336056991.274\nsamples = 25\nvalue = 168918.08", fillcolor="#f8dfcd"] ;
123 -> 124 ;
125 [label="friedman_mse = 69298242.667\nsamples = 12\nvalue = 154996.0", fillcolor="#f9e3d3"] ;
124 -> 125 ;
126 [label="friedman_mse = 238229010.947\nsamples = 13\nvalue = 181769.231", fillcolor="#f8dbc7"] ;
124 -> 126 ;
127 [label="BsmtUnfSF <= 504.5\nfriedman_mse = 471461381.217\nsamples = 116\nvalue = 201156.914", fillcolor="#f6d6be"] ;
123 -> 127 ;
128 [label="GrLivArea <= 1475.5\nfriedman_mse = 496513294.059\nsamples = 42\nvalue = 212541.81", fillcolor="#f6d3b9"] ;
127 -> 128 ;
129 [label="friedman_mse = 318028622.222\nsamples = 15\nvalue = 199493.333", fillcolor="#f7d6bf"] ;
128 -> 129 ;
130 [label="friedman_mse = 448530813.443\nsamples = 27\nvalue = 219790.963", fillcolor="#f5d0b6"] ;
128 -> 130 ;
131 [label="LotArea <= 12062.5\nfriedman_mse = 341923439.251\nsamples = 74\nvalue = 194695.216", fillcolor="#f7d8c1"] ;
127 -> 131 ;
132 [label="friedman_mse = 294542074.896\nsamples = 65\nvalue = 191945.477", fillcolor="#f7d8c2"] ;
131 -> 132 ;
133 [label="friedman_mse = 235125535.802\nsamples = 9\nvalue = 214554.444", fillcolor="#f6d2b8"] ;
131 -> 133 ;
134 [label="Exterior1st <= 1.5\nfriedman_mse = 1065997847.81\nsamples = 41\nvalue = 236635.537", fillcolor="#f4ccae"] ;
112 -> 134 ;
135 [label="Neighborhood <= 8.5\nfriedman_mse = 417144418.755\nsamples = 33\nvalue = 225626.818", fillcolor="#f5cfb3"] ;
134 -> 135 ;
136 [label="friedman_mse = 269764172.247\nsamples = 9\nvalue = 240766.444", fillcolor="#f4caac"] ;
135 -> 136 ;
137 [label="LotArea <= 10493.5\nfriedman_mse = 354226490.082\nsamples = 24\nvalue = 219949.458", fillcolor="#f5d0b6"] ;
135 -> 137 ;
138 [label="friedman_mse = 122769898.96\nsamples = 15\nvalue = 213925.8", fillcolor="#f6d2b8"] ;
137 -> 138 ;
139 [label="friedman_mse = 578723209.877\nsamples = 9\nvalue = 229988.889", fillcolor="#f5ceb1"] ;
137 -> 139 ;
140 [label="friedman_mse = 1180446135.75\nsamples = 8\nvalue = 282046.5", fillcolor="#f2bf9a"] ;
134 -> 140 ;
141 [label="BsmtFinSF1 <= 938.5\nfriedman_mse = 1979517700.562\nsamples = 80\nvalue = 247980.988", fillcolor="#f4c8a9"] ;
111 -> 141 ;
142 [label="ExterQual <= 1.5\nfriedman_mse = 1345307730.771\nsamples = 64\nvalue = 237566.297", fillcolor="#f4cbae"] ;
141 -> 142 ;
143 [label="LotArea <= 16261.0\nfriedman_mse = 1088707768.595\nsamples = 22\nvalue = 211563.636", fillcolor="#f6d3ba"] ;
142 -> 143 ;
144 [label="friedman_mse = 395123724.49\nsamples = 14\nvalue = 195035.714", fillcolor="#f7d8c1"] ;
143 -> 144 ;
145 [label="friedman_mse = 987838593.75\nsamples = 8\nvalue = 240487.5", fillcolor="#f4cbad"] ;
143 -> 145 ;
146 [label="LotFrontage <= 67.25\nfriedman_mse = 940033106.669\nsamples = 42\nvalue = 251186.738", fillcolor="#f4c7a8"] ;
142 -> 146 ;
147 [label="friedman_mse = 399069156.801\nsamples = 14\nvalue = 227391.357", fillcolor="#f5ceb2"] ;
146 -> 147 ;
148 [label="WoodDeckSF <= 196.5\nfriedman_mse = 785849965.602\nsamples = 28\nvalue = 263084.429", fillcolor="#f3c4a2"] ;
146 -> 148 ;
149 [label="LotConfig <= 2.5\nfriedman_mse = 515139039.884\nsamples = 19\nvalue = 252348.105", fillcolor="#f3c7a7"] ;
148 -> 149 ;
150 [label="friedman_mse = 162647656.09\nsamples = 10\nvalue = 240079.9", fillcolor="#f4cbad"] ;
149 -> 150 ;
151 [label="friedman_mse = 553750658.025\nsamples = 9\nvalue = 265979.444", fillcolor="#f3c3a1"] ;
149 -> 151 ;
152 [label="friedman_mse = 600277777.778\nsamples = 9\nvalue = 285750.0", fillcolor="#f2be98"] ;
148 -> 152 ;
153 [label="2ndFlrSF <= 929.0\nfriedman_mse = 2347041963.438\nsamples = 16\nvalue = 289639.75", fillcolor="#f1bd97"] ;
141 -> 153 ;
154 [label="friedman_mse = 1880735481.438\nsamples = 8\nvalue = 267745.75", fillcolor="#f3c3a0"] ;
153 -> 154 ;
155 [label="friedman_mse = 1854653973.438\nsamples = 8\nvalue = 311533.75", fillcolor="#f0b68d"] ;
153 -> 155 ;
156 [label="OverallQual <= 8.5\nfriedman_mse = 8893038849.977\nsamples = 229\nvalue = 305035.9", fillcolor="#f0b890"] ;
0 -> 156 [labeldistance=2.5, labelangle=-45, headlabel="False"] ;
157 [label="GrLivArea <= 1971.5\nfriedman_mse = 4058765722.773\nsamples = 168\nvalue = 274735.536", fillcolor="#f2c19d"] ;
156 -> 157 ;
158 [label="BsmtFinSF1 <= 940.5\nfriedman_mse = 2332108528.579\nsamples = 103\nvalue = 249392.466", fillcolor="#f4c8a9"] ;
157 -> 158 ;
159 [label="GarageArea <= 678.0\nfriedman_mse = 1327343805.961\nsamples = 67\nvalue = 230072.642", fillcolor="#f5ceb1"] ;
158 -> 159 ;
160 [label="TotalBsmtSF <= 1258.0\nfriedman_mse = 840987737.976\nsamples = 38\nvalue = 211136.605", fillcolor="#f6d3ba"] ;
159 -> 160 ;
161 [label="2ndFlrSF <= 829.5\nfriedman_mse = 738304368.188\nsamples = 20\nvalue = 197141.75", fillcolor="#f7d7c0"] ;
160 -> 161 ;
162 [label="friedman_mse = 334754097.222\nsamples = 12\nvalue = 184291.667", fillcolor="#f7dbc6"] ;
161 -> 162 ;
163 [label="friedman_mse = 724412368.359\nsamples = 8\nvalue = 216416.875", fillcolor="#f6d1b7"] ;
161 -> 163 ;
164 [label="LotArea <= 8981.0\nfriedman_mse = 495665123.802\nsamples = 18\nvalue = 226686.444", fillcolor="#f5ceb3"] ;
160 -> 164 ;
165 [label="friedman_mse = 368061080.099\nsamples = 9\nvalue = 212995.111", fillcolor="#f6d2b9"] ;
164 -> 165 ;
166 [label="friedman_mse = 248363950.617\nsamples = 9\nvalue = 240377.778", fillcolor="#f4cbad"] ;
164 -> 166 ;
167 [label="WoodDeckSF <= 164.0\nfriedman_mse = 879111116.787\nsamples = 29\nvalue = 254885.379", fillcolor="#f3c6a6"] ;
159 -> 167 ;
168 [label="MasVnrType <= 2.5\nfriedman_mse = 815077143.312\nsamples = 18\nvalue = 243292.278", fillcolor="#f4caab"] ;
167 -> 168 ;
169 [label="friedman_mse = 1050276311.111\nsamples = 9\nvalue = 232770.0", fillcolor="#f5cdb0"] ;
168 -> 169 ;
170 [label="friedman_mse = 358441316.247\nsamples = 9\nvalue = 253814.556", fillcolor="#f3c7a7"] ;
168 -> 170 ;
171 [label="friedman_mse = 404085704.446\nsamples = 11\nvalue = 273855.909", fillcolor="#f2c19e"] ;
167 -> 171 ;
172 [label="SaleType <= 2.5\nfriedman_mse = 2214558805.323\nsamples = 36\nvalue = 285348.806", fillcolor="#f2be98"] ;
158 -> 172 ;
173 [label="GrLivArea <= 1627.0\nfriedman_mse = 895036982.249\nsamples = 26\nvalue = 265861.538", fillcolor="#f3c3a1"] ;
172 -> 173 ;
174 [label="friedman_mse = 1022312500.0\nsamples = 10\nvalue = 243250.0", fillcolor="#f4caab"] ;
173 -> 174 ;
175 [label="1stFlrSF <= 1691.5\nfriedman_mse = 296219335.938\nsamples = 16\nvalue = 279993.75", fillcolor="#f2bf9b"] ;
173 -> 175 ;
176 [label="friedman_mse = 100683593.75\nsamples = 8\nvalue = 271312.5", fillcolor="#f2c29f"] ;
175 -> 176 ;
177 [label="friedman_mse = 341026875.0\nsamples = 8\nvalue = 288675.0", fillcolor="#f1bd97"] ;
175 -> 177 ;
178 [label="friedman_mse = 2090822047.81\nsamples = 10\nvalue = 336015.7", fillcolor="#efaf82"] ;
172 -> 178 ;
179 [label="1stFlrSF <= 1383.5\nfriedman_mse = 4164353743.939\nsamples = 65\nvalue = 314894.554", fillcolor="#f0b58b"] ;
157 -> 179 ;
180 [label="GarageCars <= 2.5\nfriedman_mse = 2182202500.244\nsamples = 33\nvalue = 281147.242", fillcolor="#f2bf9a"] ;
179 -> 180 ;
181 [label="friedman_mse = 1644188042.693\nsamples = 15\nvalue = 249211.8", fillcolor="#f4c8a9"] ;
180 -> 181 ;
182 [label="OpenPorchSF <= 99.0\nfriedman_mse = 1072409366.099\nsamples = 18\nvalue = 307760.111", fillcolor="#f0b78e"] ;
180 -> 182 ;
183 [label="friedman_mse = 648730513.21\nsamples = 10\nvalue = 287971.3", fillcolor="#f1bd97"] ;
182 -> 183 ;
184 [label="friedman_mse = 500641242.609\nsamples = 8\nvalue = 332496.125", fillcolor="#efb083"] ;
182 -> 184 ;
185 [label="MoSold <= 7.5\nfriedman_mse = 3822802872.687\nsamples = 32\nvalue = 349696.469", fillcolor="#eeab7c"] ;
179 -> 185 ;
186 [label="LotArea <= 12474.0\nfriedman_mse = 4022564843.537\nsamples = 21\nvalue = 370484.286", fillcolor="#eda572"] ;
185 -> 186 ;
187 [label="friedman_mse = 1899790001.0\nsamples = 10\nvalue = 332617.0", fillcolor="#efb083"] ;
186 -> 187 ;
188 [label="friedman_mse = 3463719008.264\nsamples = 11\nvalue = 404909.091", fillcolor="#ea9c63"] ;
186 -> 188 ;
189 [label="friedman_mse = 1041491998.231\nsamples = 11\nvalue = 310010.636", fillcolor="#f0b78d"] ;
185 -> 189 ;
190 [label="GrLivArea <= 2229.0\nfriedman_mse = 12714598711.223\nsamples = 61\nvalue = 388486.082", fillcolor="#eba06a"] ;
156 -> 190 ;
191 [label="TotalBsmtSF <= 1840.0\nfriedman_mse = 2218086011.703\nsamples = 35\nvalue = 341248.2", fillcolor="#eeae7f"] ;
190 -> 191 ;
192 [label="BsmtFinSF1 <= 1090.0\nfriedman_mse = 1293940088.424\nsamples = 22\nvalue = 319632.591", fillcolor="#f0b489"] ;
191 -> 192 ;
193 [label="friedman_mse = 859640849.05\nsamples = 10\nvalue = 296234.5", fillcolor="#f1bb94"] ;
192 -> 193 ;
194 [label="friedman_mse = 819442615.667\nsamples = 12\nvalue = 339131.0", fillcolor="#eeae80"] ;
192 -> 194 ;
195 [label="friedman_mse = 1653205098.402\nsamples = 13\nvalue = 377828.462", fillcolor="#eca36f"] ;
191 -> 195 ;
196 [label="GarageArea <= 836.0\nfriedman_mse = 19797069435.402\nsamples = 26\nvalue = 452075.538", fillcolor="#e88e4e"] ;
190 -> 196 ;
197 [label="friedman_mse = 18193190656.222\nsamples = 15\nvalue = 498089.333", fillcolor="#e58139"] ;
196 -> 197 ;
198 [label="friedman_mse = 15159920380.43\nsamples = 11\nvalue = 389329.455", fillcolor="#eba06a"] ;
196 -> 198 ;
}